<?xml version="1.0"?>
<opencv_storage>
<!-- Created using Computer Vision Toolbox(tm) for MATLAB(R) -->
<!-- Version 24.1.0.2537033 (R2024a) -->
<!-- Compatible with OpenCV 4.7 -->
<cascade>
  <stageType>BOOST</stageType>
  <featureType>LBP</featureType>
  <height>36</height>
  <width>36</width>
  <stageParams>
    <boostType>GAB</boostType>
    <minHitRate>9.9500000476837158e-01</minHitRate>
    <maxFalseAlarm>2.0000000298023224e-01</maxFalseAlarm>
    <weightTrimRate>9.4999999999999996e-01</weightTrimRate>
    <maxDepth>1</maxDepth>
    <maxWeakCount>100</maxWeakCount></stageParams>
  <featureParams>
    <maxCatCount>256</maxCatCount>
    <featSize>1</featSize></featureParams>
  <stageNum>6</stageNum>
  <stages>
    <!-- stage 0 -->
    <_>
      <maxWeakCount>5</maxWeakCount>
      <stageThreshold>-1.4960249662399292e+00</stageThreshold>
      <weakClassifiers>
        <_>
          <internalNodes>
            0 -1 14 -17409 -20481 -6313301 -21829 -16449 -16641
            -67130693 -21845</internalNodes>
          <leafValues>
            -9.3466603755950928e-01 7.6416033506393433e-01</leafValues></_>
        <_>
          <internalNodes>
            0 -1 52 -792658194 -178913281 -624230466 -2097153 -691011585
            -539754529 -1310741 -1</internalNodes>
          <leafValues>
            -8.8194143772125244e-01 5.6665623188018799e-01</leafValues></_>
        <_>
          <internalNodes>
            0 -1 17 -714742400 -17 -35791040 -67126329 1413871607
            1574961151 -536870913 -2049</internalNodes>
          <leafValues>
            -7.7272808551788330e-01 5.6523323059082031e-01</leafValues></_>
        <_>
          <internalNodes>
            0 -1 13 -556996724 -8454178 -4391956 -2167826 -1179683
            -2228243 -52 -3154034</internalNodes>
          <leafValues>
            -7.3132735490798950e-01 5.6525552272796631e-01</leafValues></_>
        <_>
          <internalNodes>
            0 -1 28 -118571488 -589348865 -2147440640 232595033 -49
            -2098185 -16581 -16385</internalNodes>
          <leafValues>
            -7.5072801113128662e-01 5.2805501222610474e-01</leafValues></_></weakClassifiers></_>
    <!-- stage 1 -->
    <_>
      <maxWeakCount>9</maxWeakCount>
      <stageThreshold>-1.7463738918304443e+00</stageThreshold>
      <weakClassifiers>
        <_>
          <internalNodes>
            0 -1 22 -1025 -131073 -21505 -21505 -1 -131073 -17477 -21505</internalNodes>
          <leafValues>
            -8.5657906532287598e-01 6.2387049198150635e-01</leafValues></_>
        <_>
          <internalNodes>
            0 -1 16 -1 1006582203 -2621441 1069282235 -1 -1073758209 -1
            1073724351</internalNodes>
          <leafValues>
            -7.9114645719528198e-01 3.4674888849258423e-01</leafValues></_>
        <_>
          <internalNodes>
            0 -1 41 -5 -203423745 -405275134 -4456449 -203951117
            -352584709 -1569480670 -474744901</internalNodes>
          <leafValues>
            -5.8396428823471069e-01 5.8428776264190674e-01</leafValues></_>
        <_>
          <internalNodes>
            0 -1 36 2147450879 2013233151 2147446783 -49153 871497979
            1610578935 855573119 1946093311</internalNodes>
          <leafValues>
            -7.8607475757598877e-01 3.9419278502464294e-01</leafValues></_>
        <_>
          <internalNodes>
            0 -1 29 -16780310 -65537 -18878516 -286330962 -4170
            -73402369 -1053120 -285217246</internalNodes>
          <leafValues>
            -5.9482830762863159e-01 4.7318264842033386e-01</leafValues></_>
        <_>
          <internalNodes>
            0 -1 10 -257 -16777225 -825308150 -822091105 -805613809
            1264144382 1208551951 1217349711</internalNodes>
          <leafValues>
            -5.8740705251693726e-01 4.7941240668296814e-01</leafValues></_>
        <_>
          <internalNodes>
            0 -1 55 -524985 293076799 -413700493 855113590 -10041002
            1936883063 -12582978 1916796799</internalNodes>
          <leafValues>
            -5.8449298143386841e-01 4.1951113939285278e-01</leafValues></_>
        <_>
          <internalNodes>
            0 -1 3 -268456305 15174383 -1866157 211747342 2080372543
            1084949759 -671090353 -268480673</internalNodes>
          <leafValues>
            -5.5970698595046997e-01 4.2249011993408203e-01</leafValues></_>
        <_>
          <internalNodes>
            0 -1 40 1089531135 1977084927 2138987254 -537002018 6554869
            -537 -135950594 -536920065</internalNodes>
          <leafValues>
            -5.2320563793182373e-01 4.0715998411178589e-01</leafValues></_></weakClassifiers></_>
    <!-- stage 2 -->
    <_>
      <maxWeakCount>11</maxWeakCount>
      <stageThreshold>-1.7211760282516479e+00</stageThreshold>
      <weakClassifiers>
        <_>
          <internalNodes>
            0 -1 12 -2621441 -1 -17473 -21573 -2097153 -33816577 -16449
            -21569</internalNodes>
          <leafValues>
            -8.3651888370513916e-01 3.5973596572875977e-01</leafValues></_>
        <_>
          <internalNodes>
            0 -1 46 183963391 -1 -268439553 -4097 1878994943 -1 -4097
            -4097</internalNodes>
          <leafValues>
            -7.4185365438461304e-01 3.3743298053741455e-01</leafValues></_>
        <_>
          <internalNodes>
            0 -1 62 -193 -33 -4325381 -257 -32937 -8388737 -137 -1</internalNodes>
          <leafValues>
            -5.0620901584625244e-01 5.9715360403060913e-01</leafValues></_>
        <_>
          <internalNodes>
            0 -1 9 -683280444 -131073 -557063 -1 -713687055 -1025
            -171048961 -4194305</internalNodes>
          <leafValues>
            -5.5469423532485962e-01 4.7088396549224854e-01</leafValues></_>
        <_>
          <internalNodes>
            0 -1 32 -59965612 -320274433 -289866243 -285409283 -8519919
            -2049 -131275 -264193</internalNodes>
          <leafValues>
            -5.3493720293045044e-01 4.6758463978767395e-01</leafValues></_>
        <_>
          <internalNodes>
            0 -1 21 -18896193 -2248785 -35804481 -285234433 -2313285
            -196609 -69359047 -268457330</internalNodes>
          <leafValues>
            -5.4587304592132568e-01 4.2609387636184692e-01</leafValues></_>
        <_>
          <internalNodes>
            0 -1 56 238821237 -1086423169 -32769 1587806199 -285313193
            -1 -71303177 -1363640323</internalNodes>
          <leafValues>
            -5.6067901849746704e-01 4.0377393364906311e-01</leafValues></_>
        <_>
          <internalNodes>
            0 -1 42 -16859388 -273743873 -67174520 -16851974 2146959156
            -131073 -1724508 -4428228</internalNodes>
          <leafValues>
            -6.1698096990585327e-01 3.3123287558555603e-01</leafValues></_>
        <_>
          <internalNodes>
            0 -1 8 -1464127489 -1896980611 -142622737 -1392841044
            534773247 -1890582545 -17061961 -1258291723</internalNodes>
          <leafValues>
            -5.2019482851028442e-01 3.8797912001609802e-01</leafValues></_>
        <_>
          <internalNodes>
            0 -1 57 -266449 -277885617 -1344426065 -960509490 -8388829
            1853742371 -1364252917 -1346438225</internalNodes>
          <leafValues>
            -4.8747178912162781e-01 4.1453531384468079e-01</leafValues></_>
        <_>
          <internalNodes>
            0 -1 47 -37748745 658243455 -12845408 186903467 -4325377
            238734891 -100929390 790880147</internalNodes>
          <leafValues>
            -4.9743828177452087e-01 3.9759582281112671e-01</leafValues></_></weakClassifiers></_>
    <!-- stage 3 -->
    <_>
      <maxWeakCount>11</maxWeakCount>
      <stageThreshold>-2.1179375648498535e+00</stageThreshold>
      <weakClassifiers>
        <_>
          <internalNodes>
            0 -1 43 -1 -1 -1 -1 -1 -1 -1 -2191</internalNodes>
          <leafValues>
            -8.1594204902648926e-01 3.2323580980300903e-01</leafValues></_>
        <_>
          <internalNodes>
            0 -1 2 -285216769 -285212673 -1 -1 1342173183 1342177279
            1744830463 -1</internalNodes>
          <leafValues>
            -5.9964281320571899e-01 5.7762628793716431e-01</leafValues></_>
        <_>
          <internalNodes>
            0 -1 23 1069496097 1069514687 -193 -1073742913 -1 -65601 -65
            -17</internalNodes>
          <leafValues>
            -6.4304101467132568e-01 4.3760254979133606e-01</leafValues></_>
        <_>
          <internalNodes>
            0 -1 64 -1 -17 -285212674 -620822530 -188 -301989889
            -134219964 -251658498</internalNodes>
          <leafValues>
            -5.5393230915069580e-01 4.5059984922409058e-01</leafValues></_>
        <_>
          <internalNodes>
            0 -1 26 2139073199 -5201 1945479338 -146822486 -2101249
            -536870913 -101217618 -2102613</internalNodes>
          <leafValues>
            -6.2651258707046509e-01 3.5716402530670166e-01</leafValues></_>
        <_>
          <internalNodes>
            0 -1 6 -4353 -321 -83909910 -252067158 -33599905 2130658527
            -268482835 -134228225</internalNodes>
          <leafValues>
            -4.4061338901519775e-01 5.3173732757568359e-01</leafValues></_>
        <_>
          <internalNodes>
            0 -1 58 715263007 901775295 -67109121 -1073827841 1069506555
            -8392705 -71336017 -32785</internalNodes>
          <leafValues>
            -5.4489201307296753e-01 3.9225929975509644e-01</leafValues></_>
        <_>
          <internalNodes>
            0 -1 59 -16781317 -839450757 -1052848 -56820288 251653887
            -855638021 1474258261 -706349065</internalNodes>
          <leafValues>
            -4.8807096481323242e-01 4.4774082303047180e-01</leafValues></_>
        <_>
          <internalNodes>
            0 -1 51 -225 929038127 -8388741 855485907 -295715242
            2004615037 -33556481 -168296706</internalNodes>
          <leafValues>
            -4.6058580279350281e-01 4.5043468475341797e-01</leafValues></_>
        <_>
          <internalNodes>
            0 -1 31 -22 -16851474 -69780 -70930 -16777424 -150995017 -27
            -67125761</internalNodes>
          <leafValues>
            -4.8382693529129028e-01 3.9140611886978149e-01</leafValues></_>
        <_>
          <internalNodes>
            0 -1 30 -1996555265 -67239937 1931411455 -101187585
            -1359216673 -16777553 -17043457 -2102204214</internalNodes>
          <leafValues>
            -4.9478662014007568e-01 3.7841829657554626e-01</leafValues></_></weakClassifiers></_>
    <!-- stage 4 -->
    <_>
      <maxWeakCount>14</maxWeakCount>
      <stageThreshold>-2.0546660423278809e+00</stageThreshold>
      <weakClassifiers>
        <_>
          <internalNodes>
            0 -1 34 1073692671 -1 -1 -1 -32769 -1 -1 -1</internalNodes>
          <leafValues>
            -7.8000509738922119e-01 1.8434259295463562e-01</leafValues></_>
        <_>
          <internalNodes>
            0 -1 38 -1 -2097153 -4097 -1 1895777279 -8241 2013222399
            -1051137</internalNodes>
          <leafValues>
            -5.6064361333847046e-01 4.2656978964805603e-01</leafValues></_>
        <_>
          <internalNodes>
            0 -1 5 -258 -4353 -7938 -18421022 -2099201 -3841 -135270413
            -134744842</internalNodes>
          <leafValues>
            -5.3510540723800659e-01 4.0049669146537781e-01</leafValues></_>
        <_>
          <internalNodes>
            0 -1 54 -67110126 18084643 -251702736 -776733229 -257
            -1648361485 -134219853 -67108865</internalNodes>
          <leafValues>
            -4.8340752720832825e-01 4.2870727181434631e-01</leafValues></_>
        <_>
          <internalNodes>
            0 -1 15 -136445953 -33686019 -305287491 -302141697 -35782657
            -2820643 -1344327889 -1342193730</internalNodes>
          <leafValues>
            -4.6197110414505005e-01 4.2858725786209106e-01</leafValues></_>
        <_>
          <internalNodes>
            0 -1 65 -268435673 -1528561721 -67110238 -286261430
            1565873751 1165229551 -50379404 -167772313</internalNodes>
          <leafValues>
            -4.9920949339866638e-01 3.6885264515876770e-01</leafValues></_>
        <_>
          <internalNodes>
            0 -1 37 -16842892 -285425665 -16986180 -290525270 -164011
            -68162689 -549120 -1626365</internalNodes>
          <leafValues>
            -5.9192657470703125e-01 2.9647943377494812e-01</leafValues></_>
        <_>
          <internalNodes>
            0 -1 7 -84934913 -8388609 846921440 -226820417 1149229695
            -356515842 -185139473 -159907873</internalNodes>
          <leafValues>
            -3.9568194746971130e-01 4.4190889596939087e-01</leafValues></_>
        <_>
          <internalNodes>
            0 -1 19 733095221 -265 -268451845 -263171 2113630079
            -33554433 -4231425 -169993</internalNodes>
          <leafValues>
            -4.6250885725021362e-01 3.6986809968948364e-01</leafValues></_>
        <_>
          <internalNodes>
            0 -1 45 1081145578 1087692795 -77938697 1987564511
            -738263298 -722019409 -1951400017 -8193</internalNodes>
          <leafValues>
            -5.8475923538208008e-01 2.8834131360054016e-01</leafValues></_>
        <_>
          <internalNodes>
            0 -1 33 -1366029196 -620859909 -1109434369 1073684221
            -1179387971 -1073741850 -1342619713 -1363538904</internalNodes>
          <leafValues>
            -4.9016177654266357e-01 3.1893467903137207e-01</leafValues></_>
        <_>
          <internalNodes>
            0 -1 1 -1365069898 -16842785 -545275910 -19256098 91426806
            -17301505 -29705 -67682315</internalNodes>
          <leafValues>
            -5.8368492126464844e-01 2.6929941773414612e-01</leafValues></_>
        <_>
          <internalNodes>
            0 -1 4 -822875573 15724287 -425890804 1811909543 2013222414
            125785575 -144740739 -134742145</internalNodes>
          <leafValues>
            -4.7969147562980652e-01 3.2893872261047363e-01</leafValues></_>
        <_>
          <internalNodes>
            0 -1 50 -1146626243 -138612737 -614727689 -327684 1190068221
            -1075848389 -1258320668 -319005456</internalNodes>
          <leafValues>
            -4.2440244555473328e-01 3.6717534065246582e-01</leafValues></_></weakClassifiers></_>
    <!-- stage 5 -->
    <_>
      <maxWeakCount>16</maxWeakCount>
      <stageThreshold>-7.5664037466049194e-01</stageThreshold>
      <weakClassifiers>
        <_>
          <internalNodes>
            0 -1 61 -161 -8388609 -97 -1310833 -188 2004350839 -67109035
            -8388737</internalNodes>
          <leafValues>
            -4.1857558488845825e-01 5.6237626075744629e-01</leafValues></_>
        <_>
          <internalNodes>
            0 -1 18 -171575819 1440019956 1912312571 -169880081
            -1144263745 -67261957 950766539 -1053777</internalNodes>
          <leafValues>
            -5.0410401821136475e-01 4.6244907379150391e-01</leafValues></_>
        <_>
          <internalNodes>
            0 -1 11 -16843009 -27840689 -768410369 572717823 -623116722
            -13382097 -286195777 -260899233</internalNodes>
          <leafValues>
            -4.7706526517868042e-01 4.1675889492034912e-01</leafValues></_>
        <_>
          <internalNodes>
            0 -1 44 -11010187 -140520085 -1042317089 -34608505
            -540020481 -68556051 -302784515 -1092267</internalNodes>
          <leafValues>
            -4.6627885103225708e-01 4.1933858394622803e-01</leafValues></_>
        <_>
          <internalNodes>
            0 -1 60 -273416203 -290203791 -133121 -8395 218103741
            -1350586393 -575185675 -45067</internalNodes>
          <leafValues>
            -3.4528744220733643e-01 5.1895791292190552e-01</leafValues></_>
        <_>
          <internalNodes>
            0 -1 39 -285266418 -268570113 -1614503006 -288706642
            -236617915 -319104800 -606209276 -135270618</internalNodes>
          <leafValues>
            -6.2543618679046631e-01 2.6137751340866089e-01</leafValues></_>
        <_>
          <internalNodes>
            0 -1 53 1078906606 1357961438 -1076977690 -331289682
            -252641537 -197344609 2141973438 -171901974</internalNodes>
          <leafValues>
            -5.7998907566070557e-01 2.9840236902236938e-01</leafValues></_>
        <_>
          <internalNodes>
            0 -1 49 -4747 -8426311 -852523075 768542165 -178295107
            -40143189 -275810021 800784763</internalNodes>
          <leafValues>
            -4.7499254345893860e-01 3.4833899140357971e-01</leafValues></_>
        <_>
          <internalNodes>
            0 -1 27 -1931850507 2111592847 -1256931137 -1147641619
            -1238836803 -671566033 -1194005060 -1191674820</internalNodes>
          <leafValues>
            -5.3546249866485596e-01 3.0311051011085510e-01</leafValues></_>
        <_>
          <internalNodes>
            0 -1 0 -486543409 -522588498 -50331668 -369113334 37212013
            1613464380 1577056206 -235933717</internalNodes>
          <leafValues>
            -3.7081283330917358e-01 4.8602437973022461e-01</leafValues></_>
        <_>
          <internalNodes>
            0 -1 25 -37757729 -596293943 -65537 -661013257 -721644035
            -1395720836 -33554561 -119611457</internalNodes>
          <leafValues>
            -3.6061823368072510e-01 4.5459717512130737e-01</leafValues></_>
        <_>
          <internalNodes>
            0 -1 20 -134786641 -1220214989 -1118361 -538378650 660463515
            -26910897 -1620807762 -146514169</internalNodes>
          <leafValues>
            -3.8495641946792603e-01 4.4515135884284973e-01</leafValues></_>
        <_>
          <internalNodes>
            0 -1 24 180692823 -464263489 -5645965 -604113442 -618566659
            -88417633 -67159242 -1349677708</internalNodes>
          <leafValues>
            -4.4175493717193604e-01 3.9429524540901184e-01</leafValues></_>
        <_>
          <internalNodes>
            0 -1 63 -976224463 547704115 -712669269 -1382165031
            1229616439 1045546187 -2066893426 -1482697089</internalNodes>
          <leafValues>
            -4.8577484488487244e-01 3.3965414762496948e-01</leafValues></_>
        <_>
          <internalNodes>
            0 -1 48 1968177117 -663236139 -597962740 1347274196
            -501241638 1075298544 -633618560 18874311</internalNodes>
          <leafValues>
            -5.0372642278671265e-01 3.3891287446022034e-01</leafValues></_>
        <_>
          <internalNodes>
            0 -1 35 1565912851 1582559907 -1685869729 2139325235
            1432191250 -138419147 1078239492 355851789</internalNodes>
          <leafValues>
            -5.7783025503158569e-01 2.7347666025161743e-01</leafValues></_></weakClassifiers></_></stages>
  <features>
    <_>
      <rect>
        0 0 5 9</rect></_>
    <_>
      <rect>
        2 1 8 4</rect></_>
    <_>
      <rect>
        4 0 4 3</rect></_>
    <_>
      <rect>
        4 6 3 5</rect></_>
    <_>
      <rect>
        4 11 2 2</rect></_>
    <_>
      <rect>
        5 17 4 2</rect></_>
    <_>
      <rect>
        5 20 4 3</rect></_>
    <_>
      <rect>
        7 24 3 2</rect></_>
    <_>
      <rect>
        8 5 1 1</rect></_>
    <_>
      <rect>
        8 12 3 4</rect></_>
    <_>
      <rect>
        8 18 4 4</rect></_>
    <_>
      <rect>
        8 26 3 2</rect></_>
    <_>
      <rect>
        9 7 5 4</rect></_>
    <_>
      <rect>
        10 0 5 5</rect></_>
    <_>
      <rect>
        10 7 5 4</rect></_>
    <_>
      <rect>
        10 7 7 4</rect></_>
    <_>
      <rect>
        10 9 3 3</rect></_>
    <_>
      <rect>
        10 11 2 5</rect></_>
    <_>
      <rect>
        10 11 3 5</rect></_>
    <_>
      <rect>
        10 13 1 1</rect></_>
    <_>
      <rect>
        10 18 3 1</rect></_>
    <_>
      <rect>
        11 6 5 5</rect></_>
    <_>
      <rect>
        11 7 5 4</rect></_>
    <_>
      <rect>
        11 12 2 2</rect></_>
    <_>
      <rect>
        12 0 2 2</rect></_>
    <_>
      <rect>
        12 10 2 1</rect></_>
    <_>
      <rect>
        12 10 4 2</rect></_>
    <_>
      <rect>
        13 8 1 1</rect></_>
    <_>
      <rect>
        13 10 3 4</rect></_>
    <_>
      <rect>
        15 5 2 7</rect></_>
    <_>
      <rect>
        15 7 1 3</rect></_>
    <_>
      <rect>
        15 15 2 2</rect></_>
    <_>
      <rect>
        15 22 2 4</rect></_>
    <_>
      <rect>
        16 23 1 1</rect></_>
    <_>
      <rect>
        17 0 1 1</rect></_>
    <_>
      <rect>
        17 3 4 8</rect></_>
    <_>
      <rect>
        17 8 3 4</rect></_>
    <_>
      <rect>
        17 10 1 4</rect></_>
    <_>
      <rect>
        17 11 2 2</rect></_>
    <_>
      <rect>
        17 12 1 1</rect></_>
    <_>
      <rect>
        17 12 3 3</rect></_>
    <_>
      <rect>
        17 15 6 5</rect></_>
    <_>
      <rect>
        17 17 1 1</rect></_>
    <_>
      <rect>
        18 8 1 2</rect></_>
    <_>
      <rect>
        19 6 1 3</rect></_>
    <_>
      <rect>
        19 10 3 6</rect></_>
    <_>
      <rect>
        19 12 2 2</rect></_>
    <_>
      <rect>
        19 18 3 4</rect></_>
    <_>
      <rect>
        19 19 3 2</rect></_>
    <_>
      <rect>
        19 21 1 2</rect></_>
    <_>
      <rect>
        19 29 1 1</rect></_>
    <_>
      <rect>
        20 0 5 2</rect></_>
    <_>
      <rect>
        20 11 2 5</rect></_>
    <_>
      <rect>
        20 15 2 2</rect></_>
    <_>
      <rect>
        20 23 3 2</rect></_>
    <_>
      <rect>
        21 0 5 3</rect></_>
    <_>
      <rect>
        21 1 1 1</rect></_>
    <_>
      <rect>
        21 6 4 5</rect></_>
    <_>
      <rect>
        21 13 1 1</rect></_>
    <_>
      <rect>
        21 25 3 2</rect></_>
    <_>
      <rect>
        21 28 1 1</rect></_>
    <_>
      <rect>
        22 4 3 2</rect></_>
    <_>
      <rect>
        23 5 2 1</rect></_>
    <_>
      <rect>
        23 10 3 3</rect></_>
    <_>
      <rect>
        23 19 2 1</rect></_>
    <_>
      <rect>
        28 16 1 1</rect></_></features></cascade>
</opencv_storage>
