<?xml version="1.0"?>
<opencv_storage>
<!-- Created using Computer Vision Toolbox(tm) for MATLAB(R) -->
<!-- Version 24.1.0.2537033 (R2024a) -->
<!-- Compatible with OpenCV 4.7 -->
<cascade>
  <stageType>BOOST</stageType>
  <featureType>HOG</featureType>
  <height>32</height>
  <width>32</width>
  <stageParams>
    <boostType>GAB</boostType>
    <minHitRate>9.9500000476837158e-01</minHitRate>
    <maxFalseAlarm>2.0000000298023224e-01</maxFalseAlarm>
    <weightTrimRate>9.4999999999999996e-01</weightTrimRate>
    <maxDepth>1</maxDepth>
    <maxWeakCount>100</maxWeakCount></stageParams>
  <featureParams>
    <maxCatCount>0</maxCatCount>
    <featSize>36</featSize></featureParams>
  <stageNum>3</stageNum>
  <stages>
    <!-- stage 0 -->
    <_>
      <maxWeakCount>22</maxWeakCount>
      <stageThreshold>-2.0649011135101318e+00</stageThreshold>
      <weakClassifiers>
        <_>
          <internalNodes>
            0 -1 66 4.9659699201583862e-02</internalNodes>
          <leafValues>
            -7.6730942726135254e-01 3.4304592013359070e-01</leafValues></_>
        <_>
          <internalNodes>
            0 -1 98 4.0199592709541321e-02</internalNodes>
          <leafValues>
            -5.5818688869476318e-01 5.2606433629989624e-01</leafValues></_>
        <_>
          <internalNodes>
            0 -1 0 1.4443690888583660e-02</internalNodes>
          <leafValues>
            4.3416175246238708e-01 -5.4630923271179199e-01</leafValues></_>
        <_>
          <internalNodes>
            0 -1 34 3.6272712051868439e-02</internalNodes>
          <leafValues>
            -4.2722848057746887e-01 4.7250983119010925e-01</leafValues></_>
        <_>
          <internalNodes>
            0 -1 21 1.6115935519337654e-02</internalNodes>
          <leafValues>
            3.4709656238555908e-01 -4.9234500527381897e-01</leafValues></_>
        <_>
          <internalNodes>
            0 -1 107 1.6093909740447998e-02</internalNodes>
          <leafValues>
            -7.2949784994125366e-01 1.8242302536964417e-01</leafValues></_>
        <_>
          <internalNodes>
            0 -1 7 3.7424381822347641e-02</internalNodes>
          <leafValues>
            -3.1646862626075745e-01 4.6030405163764954e-01</leafValues></_>
        <_>
          <internalNodes>
            0 -1 56 1.6891755163669586e-02</internalNodes>
          <leafValues>
            2.6255008578300476e-01 -5.2365523576736450e-01</leafValues></_>
        <_>
          <internalNodes>
            0 -1 79 2.1789100021123886e-02</internalNodes>
          <leafValues>
            -4.5521181821823120e-01 2.7506622672080994e-01</leafValues></_>
        <_>
          <internalNodes>
            0 -1 15 3.2156877219676971e-02</internalNodes>
          <leafValues>
            -3.0601790547370911e-01 3.4438484907150269e-01</leafValues></_>
        <_>
          <internalNodes>
            0 -1 75 1.7258483916521072e-02</internalNodes>
          <leafValues>
            -4.3332225084304810e-01 2.1620483696460724e-01</leafValues></_>
        <_>
          <internalNodes>
            0 -1 97 1.9735040143132210e-02</internalNodes>
          <leafValues>
            3.0599552392959595e-01 -3.3594706654548645e-01</leafValues></_>
        <_>
          <internalNodes>
            0 -1 4 2.0593708381056786e-02</internalNodes>
          <leafValues>
            2.1453097462654114e-01 -4.0294378995895386e-01</leafValues></_>
        <_>
          <internalNodes>
            0 -1 91 2.9319092631340027e-02</internalNodes>
          <leafValues>
            -2.5965568423271179e-01 3.5385942459106445e-01</leafValues></_>
        <_>
          <internalNodes>
            0 -1 104 9.7891418263316154e-03</internalNodes>
          <leafValues>
            -8.4300255775451660e-01 8.8260419666767120e-02</leafValues></_>
        <_>
          <internalNodes>
            0 -1 36 1.6365550458431244e-02</internalNodes>
          <leafValues>
            1.8818899989128113e-01 -3.7442305684089661e-01</leafValues></_>
        <_>
          <internalNodes>
            0 -1 46 1.6179598867893219e-02</internalNodes>
          <leafValues>
            -3.8446438312530518e-01 1.8879060447216034e-01</leafValues></_>
        <_>
          <internalNodes>
            0 -1 38 1.8871810287237167e-02</internalNodes>
          <leafValues>
            1.7996279895305634e-01 -3.7975236773490906e-01</leafValues></_>
        <_>
          <internalNodes>
            0 -1 27 2.6501066982746124e-02</internalNodes>
          <leafValues>
            1.5344341099262238e-01 -4.4585353136062622e-01</leafValues></_>
        <_>
          <internalNodes>
            0 -1 44 1.3757843524217606e-02</internalNodes>
          <leafValues>
            -4.6934643387794495e-01 1.3390332460403442e-01</leafValues></_>
        <_>
          <internalNodes>
            0 -1 77 2.7657009661197662e-02</internalNodes>
          <leafValues>
            -3.0475687980651855e-01 2.2310088574886322e-01</leafValues></_>
        <_>
          <internalNodes>
            0 -1 106 1.2986052781343460e-02</internalNodes>
          <leafValues>
            -5.4821127653121948e-01 1.0425430536270142e-01</leafValues></_></weakClassifiers></_>
    <!-- stage 1 -->
    <_>
      <maxWeakCount>39</maxWeakCount>
      <stageThreshold>-2.0141983032226562e+00</stageThreshold>
      <weakClassifiers>
        <_>
          <internalNodes>
            0 -1 81 4.5419350266456604e-02</internalNodes>
          <leafValues>
            -7.4082100391387939e-01 1.6526009142398834e-01</leafValues></_>
        <_>
          <internalNodes>
            0 -1 64 4.2750615626573563e-02</internalNodes>
          <leafValues>
            -4.5809227228164673e-01 4.1131153702735901e-01</leafValues></_>
        <_>
          <internalNodes>
            0 -1 55 1.7620712518692017e-02</internalNodes>
          <leafValues>
            2.7914312481880188e-01 -5.4460650682449341e-01</leafValues></_>
        <_>
          <internalNodes>
            0 -1 108 2.5529205799102783e-02</internalNodes>
          <leafValues>
            -5.7588607072830200e-01 2.7260851860046387e-01</leafValues></_>
        <_>
          <internalNodes>
            0 -1 12 4.0458913892507553e-02</internalNodes>
          <leafValues>
            -3.1668457388877869e-01 4.4551774859428406e-01</leafValues></_>
        <_>
          <internalNodes>
            0 -1 71 2.3732278496026993e-02</internalNodes>
          <leafValues>
            -3.8445684313774109e-01 3.5513335466384888e-01</leafValues></_>
        <_>
          <internalNodes>
            0 -1 96 1.9383341073989868e-02</internalNodes>
          <leafValues>
            2.6352939009666443e-01 -5.2081793546676636e-01</leafValues></_>
        <_>
          <internalNodes>
            0 -1 18 1.5935247763991356e-02</internalNodes>
          <leafValues>
            2.2911608219146729e-01 -4.8572540283203125e-01</leafValues></_>
        <_>
          <internalNodes>
            0 -1 84 2.8262224048376083e-02</internalNodes>
          <leafValues>
            -4.1658622026443481e-01 2.2441948950290680e-01</leafValues></_>
        <_>
          <internalNodes>
            0 -1 52 2.8191639110445976e-02</internalNodes>
          <leafValues>
            -2.6791432499885559e-01 3.0673125386238098e-01</leafValues></_>
        <_>
          <internalNodes>
            0 -1 93 3.5011909902095795e-02</internalNodes>
          <leafValues>
            -2.7948129177093506e-01 2.8332749009132385e-01</leafValues></_>
        <_>
          <internalNodes>
            0 -1 3 1.0633446276187897e-02</internalNodes>
          <leafValues>
            -6.5412980318069458e-01 1.1816485971212387e-01</leafValues></_>
        <_>
          <internalNodes>
            0 -1 34 5.4055541753768921e-02</internalNodes>
          <leafValues>
            -2.2327506542205811e-01 4.1692072153091431e-01</leafValues></_>
        <_>
          <internalNodes>
            0 -1 37 1.6774618998169899e-02</internalNodes>
          <leafValues>
            2.1367254853248596e-01 -3.4567365050315857e-01</leafValues></_>
        <_>
          <internalNodes>
            0 -1 73 1.5099081210792065e-02</internalNodes>
          <leafValues>
            2.3264087736606598e-01 -3.2908999919891357e-01</leafValues></_>
        <_>
          <internalNodes>
            0 -1 8 9.1400258243083954e-03</internalNodes>
          <leafValues>
            -6.7446321249008179e-01 1.1022770404815674e-01</leafValues></_>
        <_>
          <internalNodes>
            0 -1 1 9.4263944774866104e-03</internalNodes>
          <leafValues>
            2.4607643485069275e-01 -2.8122529387474060e-01</leafValues></_>
        <_>
          <internalNodes>
            0 -1 60 1.2173686176538467e-02</internalNodes>
          <leafValues>
            -4.6020436286926270e-01 1.4410519599914551e-01</leafValues></_>
        <_>
          <internalNodes>
            0 -1 33 1.1827442795038223e-02</internalNodes>
          <leafValues>
            -4.5310747623443604e-01 1.3023407757282257e-01</leafValues></_>
        <_>
          <internalNodes>
            0 -1 10 1.8969392403960228e-02</internalNodes>
          <leafValues>
            1.6915485262870789e-01 -3.6825224757194519e-01</leafValues></_>
        <_>
          <internalNodes>
            0 -1 40 3.6159615963697433e-02</internalNodes>
          <leafValues>
            1.0390292853116989e-01 -4.9115431308746338e-01</leafValues></_>
        <_>
          <internalNodes>
            0 -1 61 1.3620192185044289e-02</internalNodes>
          <leafValues>
            -4.0216153860092163e-01 1.3025882840156555e-01</leafValues></_>
        <_>
          <internalNodes>
            0 -1 50 2.0867886021733284e-02</internalNodes>
          <leafValues>
            1.5415313839912415e-01 -3.1031253933906555e-01</leafValues></_>
        <_>
          <internalNodes>
            0 -1 69 1.2799238786101341e-02</internalNodes>
          <leafValues>
            1.7727403342723846e-01 -2.7604371309280396e-01</leafValues></_>
        <_>
          <internalNodes>
            0 -1 29 9.7969425842165947e-03</internalNodes>
          <leafValues>
            -4.7438776493072510e-01 1.0382223129272461e-01</leafValues></_>
        <_>
          <internalNodes>
            0 -1 87 2.3933090269565582e-02</internalNodes>
          <leafValues>
            1.5433491766452789e-01 -2.9795706272125244e-01</leafValues></_>
        <_>
          <internalNodes>
            0 -1 99 9.7668645903468132e-03</internalNodes>
          <leafValues>
            -5.7660830020904541e-01 8.6418904364109039e-02</leafValues></_>
        <_>
          <internalNodes>
            0 -1 68 1.4524949714541435e-02</internalNodes>
          <leafValues>
            2.0080770552158356e-01 -2.2588570415973663e-01</leafValues></_>
        <_>
          <internalNodes>
            0 -1 19 1.9963817670941353e-02</internalNodes>
          <leafValues>
            1.4910419285297394e-01 -3.0397242307662964e-01</leafValues></_>
        <_>
          <internalNodes>
            0 -1 75 1.8279392272233963e-02</internalNodes>
          <leafValues>
            -3.1678608059883118e-01 1.4382283389568329e-01</leafValues></_>
        <_>
          <internalNodes>
            0 -1 31 1.4961872249841690e-02</internalNodes>
          <leafValues>
            1.8384723365306854e-01 -2.4053852260112762e-01</leafValues></_>
        <_>
          <internalNodes>
            0 -1 63 1.1371078900992870e-02</internalNodes>
          <leafValues>
            -3.7124702334403992e-01 1.1328335106372833e-01</leafValues></_>
        <_>
          <internalNodes>
            0 -1 72 3.8269773125648499e-02</internalNodes>
          <leafValues>
            8.3842307329177856e-02 -4.2242801189422607e-01</leafValues></_>
        <_>
          <internalNodes>
            0 -1 14 4.3986499309539795e-02</internalNodes>
          <leafValues>
            -8.7544135749340057e-02 4.2325302958488464e-01</leafValues></_>
        <_>
          <internalNodes>
            0 -1 108 9.2779379338026047e-03</internalNodes>
          <leafValues>
            -9.1065633296966553e-01 4.2217157781124115e-02</leafValues></_>
        <_>
          <internalNodes>
            0 -1 80 6.4443945884704590e-02</internalNodes>
          <leafValues>
            -5.8164454996585846e-02 7.0728975534439087e-01</leafValues></_>
        <_>
          <internalNodes>
            0 -1 35 4.8651034012436867e-03</internalNodes>
          <leafValues>
            3.5114276409149170e-01 -9.1103598475456238e-02</leafValues></_>
        <_>
          <internalNodes>
            0 -1 53 1.5541791915893555e-02</internalNodes>
          <leafValues>
            1.5824460983276367e-01 -1.9627000391483307e-01</leafValues></_>
        <_>
          <internalNodes>
            0 -1 83 2.6879593729972839e-02</internalNodes>
          <leafValues>
            1.1251333355903625e-01 -2.8366801142692566e-01</leafValues></_></weakClassifiers></_>
    <!-- stage 2 -->
    <_>
      <maxWeakCount>65</maxWeakCount>
      <stageThreshold>-1.0285860300064087e+00</stageThreshold>
      <weakClassifiers>
        <_>
          <internalNodes>
            0 -1 57 4.4500134885311127e-02</internalNodes>
          <leafValues>
            2.2530328482389450e-02 7.2099918127059937e-01</leafValues></_>
        <_>
          <internalNodes>
            0 -1 66 4.1672084480524063e-02</internalNodes>
          <leafValues>
            -3.2878124713897705e-01 4.5000982284545898e-01</leafValues></_>
        <_>
          <internalNodes>
            0 -1 101 1.1935096234083176e-02</internalNodes>
          <leafValues>
            3.4484058618545532e-01 -3.8323116302490234e-01</leafValues></_>
        <_>
          <internalNodes>
            0 -1 90 3.3836089074611664e-02</internalNodes>
          <leafValues>
            -3.8962209224700928e-01 2.9102364182472229e-01</leafValues></_>
        <_>
          <internalNodes>
            0 -1 76 2.5521965697407722e-02</internalNodes>
          <leafValues>
            -4.0953764319419861e-01 2.6698315143585205e-01</leafValues></_>
        <_>
          <internalNodes>
            0 -1 16 4.0560446679592133e-02</internalNodes>
          <leafValues>
            -2.8157624602317810e-01 3.3162844181060791e-01</leafValues></_>
        <_>
          <internalNodes>
            0 -1 85 3.0541595071554184e-02</internalNodes>
          <leafValues>
            -3.6014163494110107e-01 3.2292342185974121e-01</leafValues></_>
        <_>
          <internalNodes>
            0 -1 82 1.9447974860668182e-02</internalNodes>
          <leafValues>
            2.1072039008140564e-01 -3.5430943965911865e-01</leafValues></_>
        <_>
          <internalNodes>
            0 -1 79 3.1920474022626877e-02</internalNodes>
          <leafValues>
            -2.7148526906967163e-01 2.7512905001640320e-01</leafValues></_>
        <_>
          <internalNodes>
            0 -1 24 1.5298405662178993e-02</internalNodes>
          <leafValues>
            -3.8034945726394653e-01 1.5899771451950073e-01</leafValues></_>
        <_>
          <internalNodes>
            0 -1 55 8.1047005951404572e-03</internalNodes>
          <leafValues>
            3.0558601021766663e-01 -2.2281132638454437e-01</leafValues></_>
        <_>
          <internalNodes>
            0 -1 62 2.1634701639413834e-02</internalNodes>
          <leafValues>
            1.6858772933483124e-01 -3.6693310737609863e-01</leafValues></_>
        <_>
          <internalNodes>
            0 -1 51 1.9078802317380905e-02</internalNodes>
          <leafValues>
            1.9689607620239258e-01 -3.2081887125968933e-01</leafValues></_>
        <_>
          <internalNodes>
            0 -1 58 1.6183834522962570e-02</internalNodes>
          <leafValues>
            -3.7148532271385193e-01 1.5563841164112091e-01</leafValues></_>
        <_>
          <internalNodes>
            0 -1 39 2.2154081612825394e-02</internalNodes>
          <leafValues>
            -3.7896856665611267e-01 1.6379451751708984e-01</leafValues></_>
        <_>
          <internalNodes>
            0 -1 100 1.9093122333288193e-02</internalNodes>
          <leafValues>
            1.3932634890079498e-01 -3.8978046178817749e-01</leafValues></_>
        <_>
          <internalNodes>
            0 -1 89 2.1199975162744522e-02</internalNodes>
          <leafValues>
            1.8809044361114502e-01 -2.9454144835472107e-01</leafValues></_>
        <_>
          <internalNodes>
            0 -1 48 1.0028413496911526e-02</internalNodes>
          <leafValues>
            -5.6031298637390137e-01 1.0869680345058441e-01</leafValues></_>
        <_>
          <internalNodes>
            0 -1 47 1.8879685550928116e-02</internalNodes>
          <leafValues>
            1.8671822547912598e-01 -2.6924097537994385e-01</leafValues></_>
        <_>
          <internalNodes>
            0 -1 107 2.0749310031533241e-02</internalNodes>
          <leafValues>
            -4.2087912559509277e-01 1.1231376975774765e-01</leafValues></_>
        <_>
          <internalNodes>
            0 -1 9 2.3661736398935318e-02</internalNodes>
          <leafValues>
            1.4736954867839813e-01 -3.5355728864669800e-01</leafValues></_>
        <_>
          <internalNodes>
            0 -1 21 3.7850987166166306e-02</internalNodes>
          <leafValues>
            8.0727696418762207e-02 -5.7048046588897705e-01</leafValues></_>
        <_>
          <internalNodes>
            0 -1 74 3.3894844353199005e-02</internalNodes>
          <leafValues>
            9.8360732197761536e-02 -4.3101018667221069e-01</leafValues></_>
        <_>
          <internalNodes>
            0 -1 96 2.6326540857553482e-02</internalNodes>
          <leafValues>
            1.0354075580835342e-01 -4.2062014341354370e-01</leafValues></_>
        <_>
          <internalNodes>
            0 -1 43 8.6939996108412743e-03</internalNodes>
          <leafValues>
            -5.1321637630462646e-01 8.0261461436748505e-02</leafValues></_>
        <_>
          <internalNodes>
            0 -1 102 1.1298766359686852e-02</internalNodes>
          <leafValues>
            -5.0131660699844360e-01 7.5499475002288818e-02</leafValues></_>
        <_>
          <internalNodes>
            0 -1 54 1.1878587305545807e-02</internalNodes>
          <leafValues>
            1.9816024601459503e-01 -1.9091410934925079e-01</leafValues></_>
        <_>
          <internalNodes>
            0 -1 42 4.4484049081802368e-02</internalNodes>
          <leafValues>
            6.2719047069549561e-02 -5.5165761709213257e-01</leafValues></_>
        <_>
          <internalNodes>
            0 -1 14 6.3684016466140747e-02</internalNodes>
          <leafValues>
            -5.9279162436723709e-02 6.7855620384216309e-01</leafValues></_>
        <_>
          <internalNodes>
            0 -1 5 1.5131271444261074e-02</internalNodes>
          <leafValues>
            -2.6761806011199951e-01 1.3939455151557922e-01</leafValues></_>
        <_>
          <internalNodes>
            0 -1 11 2.9347687959671021e-02</internalNodes>
          <leafValues>
            -2.0825167000293732e-01 1.9310739636421204e-01</leafValues></_>
        <_>
          <internalNodes>
            0 -1 67 1.7321988940238953e-02</internalNodes>
          <leafValues>
            1.7351612448692322e-01 -2.1047365665435791e-01</leafValues></_>
        <_>
          <internalNodes>
            0 -1 32 3.0089769512414932e-02</internalNodes>
          <leafValues>
            1.7469528317451477e-01 -2.0951601862907410e-01</leafValues></_>
        <_>
          <internalNodes>
            0 -1 6 5.1545526832342148e-02</internalNodes>
          <leafValues>
            5.6415636092424393e-02 -5.9102839231491089e-01</leafValues></_>
        <_>
          <internalNodes>
            0 -1 31 1.8638517707586288e-02</internalNodes>
          <leafValues>
            1.2318783998489380e-01 -2.6760232448577881e-01</leafValues></_>
        <_>
          <internalNodes>
            0 -1 25 2.5215176865458488e-02</internalNodes>
          <leafValues>
            2.1480986475944519e-01 -1.6366955637931824e-01</leafValues></_>
        <_>
          <internalNodes>
            0 -1 45 1.4429220929741859e-02</internalNodes>
          <leafValues>
            -3.8111853599548340e-01 1.1627184599637985e-01</leafValues></_>
        <_>
          <internalNodes>
            0 -1 95 2.8338924050331116e-02</internalNodes>
          <leafValues>
            1.0385471582412720e-01 -3.2637763023376465e-01</leafValues></_>
        <_>
          <internalNodes>
            0 -1 68 9.0247411280870438e-03</internalNodes>
          <leafValues>
            2.4789714813232422e-01 -1.3641922175884247e-01</leafValues></_>
        <_>
          <internalNodes>
            0 -1 78 5.7176183909177780e-02</internalNodes>
          <leafValues>
            -6.0308475047349930e-02 5.3959751129150391e-01</leafValues></_>
        <_>
          <internalNodes>
            0 -1 109 1.3780759647488594e-02</internalNodes>
          <leafValues>
            -5.8857834339141846e-01 5.9558708220720291e-02</leafValues></_>
        <_>
          <internalNodes>
            0 -1 52 4.2654827237129211e-02</internalNodes>
          <leafValues>
            -1.0814517736434937e-01 2.9815381765365601e-01</leafValues></_>
        <_>
          <internalNodes>
            0 -1 17 1.0412514209747314e-02</internalNodes>
          <leafValues>
            2.2252701222896576e-01 -1.3891653716564178e-01</leafValues></_>
        <_>
          <internalNodes>
            0 -1 26 5.6038713082671165e-03</internalNodes>
          <leafValues>
            -6.2770950794219971e-01 4.7541178762912750e-02</leafValues></_>
        <_>
          <internalNodes>
            0 -1 28 2.1733392030000687e-02</internalNodes>
          <leafValues>
            1.3157638907432556e-01 -2.2136084735393524e-01</leafValues></_>
        <_>
          <internalNodes>
            0 -1 80 5.6803632527589798e-02</internalNodes>
          <leafValues>
            -5.6365516036748886e-02 5.4463660717010498e-01</leafValues></_>
        <_>
          <internalNodes>
            0 -1 49 1.3920456171035767e-02</internalNodes>
          <leafValues>
            -2.9296684265136719e-01 1.0599725693464279e-01</leafValues></_>
        <_>
          <internalNodes>
            0 -1 77 2.4833489209413528e-02</internalNodes>
          <leafValues>
            -2.5527262687683105e-01 1.2027733772993088e-01</leafValues></_>
        <_>
          <internalNodes>
            0 -1 41 1.9229143857955933e-02</internalNodes>
          <leafValues>
            1.8770737946033478e-01 -1.5937940776348114e-01</leafValues></_>
        <_>
          <internalNodes>
            0 -1 92 2.2742751985788345e-02</internalNodes>
          <leafValues>
            1.3808438181877136e-01 -2.2056712210178375e-01</leafValues></_>
        <_>
          <internalNodes>
            0 -1 65 1.3339692726731300e-02</internalNodes>
          <leafValues>
            1.6559739410877228e-01 -1.8286342918872833e-01</leafValues></_>
        <_>
          <internalNodes>
            0 -1 30 7.7445842325687408e-03</internalNodes>
          <leafValues>
            2.2856472432613373e-01 -1.3050487637519836e-01</leafValues></_>
        <_>
          <internalNodes>
            0 -1 88 6.4619844779372215e-03</internalNodes>
          <leafValues>
            -3.5186177492141724e-01 1.0017979145050049e-01</leafValues></_>
        <_>
          <internalNodes>
            0 -1 103 7.3795281350612640e-03</internalNodes>
          <leafValues>
            -7.9187190532684326e-01 3.6899108439683914e-02</leafValues></_>
        <_>
          <internalNodes>
            0 -1 94 2.5136023759841919e-02</internalNodes>
          <leafValues>
            9.7668759524822235e-02 -2.8447955846786499e-01</leafValues></_>
        <_>
          <internalNodes>
            0 -1 22 4.5276366174221039e-02</internalNodes>
          <leafValues>
            5.5388461798429489e-02 -4.7715678811073303e-01</leafValues></_>
        <_>
          <internalNodes>
            0 -1 59 3.1072210520505905e-02</internalNodes>
          <leafValues>
            7.2750233113765717e-02 -3.5758998990058899e-01</leafValues></_>
        <_>
          <internalNodes>
            0 -1 23 7.5045307166874409e-03</internalNodes>
          <leafValues>
            -4.3834036588668823e-01 6.5504863858222961e-02</leafValues></_>
        <_>
          <internalNodes>
            0 -1 20 5.5943191051483154e-02</internalNodes>
          <leafValues>
            -9.3471176922321320e-02 3.5057458281517029e-01</leafValues></_>
        <_>
          <internalNodes>
            0 -1 2 1.0200564749538898e-02</internalNodes>
          <leafValues>
            2.0953741669654846e-01 -1.3608083128929138e-01</leafValues></_>
        <_>
          <internalNodes>
            0 -1 105 7.0319980382919312e-02</internalNodes>
          <leafValues>
            6.2500178813934326e-02 -4.7823858261108398e-01</leafValues></_>
        <_>
          <internalNodes>
            0 -1 70 3.2968074083328247e-02</internalNodes>
          <leafValues>
            7.7148504555225372e-02 -3.1488618254661560e-01</leafValues></_>
        <_>
          <internalNodes>
            0 -1 86 8.3384178578853607e-03</internalNodes>
          <leafValues>
            -5.1726609468460083e-01 4.6546649187803268e-02</leafValues></_>
        <_>
          <internalNodes>
            0 -1 27 1.2589105404913425e-02</internalNodes>
          <leafValues>
            1.7579014599323273e-01 -1.4149957895278931e-01</leafValues></_>
        <_>
          <internalNodes>
            0 -1 13 4.6673662960529327e-02</internalNodes>
          <leafValues>
            7.5154364109039307e-02 -3.5189536213874817e-01</leafValues></_></weakClassifiers></_></stages>
  <features>
    <_>
      <rect>
        0 0 8 8 4</rect></_>
    <_>
      <rect>
        0 0 8 8 5</rect></_>
    <_>
      <rect>
        0 0 8 8 14</rect></_>
    <_>
      <rect>
        0 0 8 8 30</rect></_>
    <_>
      <rect>
        0 4 8 8 20</rect></_>
    <_>
      <rect>
        0 4 8 8 29</rect></_>
    <_>
      <rect>
        0 4 8 8 33</rect></_>
    <_>
      <rect>
        0 8 8 8 13</rect></_>
    <_>
      <rect>
        0 8 8 8 14</rect></_>
    <_>
      <rect>
        0 12 8 8 1</rect></_>
    <_>
      <rect>
        0 12 8 8 2</rect></_>
    <_>
      <rect>
        0 12 8 8 7</rect></_>
    <_>
      <rect>
        0 12 8 8 33</rect></_>
    <_>
      <rect>
        0 12 8 8 35</rect></_>
    <_>
      <rect>
        0 16 8 8 20</rect></_>
    <_>
      <rect>
        0 16 8 8 33</rect></_>
    <_>
      <rect>
        4 0 8 8 0</rect></_>
    <_>
      <rect>
        4 0 8 8 4</rect></_>
    <_>
      <rect>
        4 0 8 8 6</rect></_>
    <_>
      <rect>
        4 0 8 8 9</rect></_>
    <_>
      <rect>
        4 0 8 8 13</rect></_>
    <_>
      <rect>
        4 0 8 8 17</rect></_>
    <_>
      <rect>
        4 4 8 8 19</rect></_>
    <_>
      <rect>
        4 4 8 8 28</rect></_>
    <_>
      <rect>
        4 8 8 8 10</rect></_>
    <_>
      <rect>
        4 8 8 8 13</rect></_>
    <_>
      <rect>
        4 8 8 8 15</rect></_>
    <_>
      <rect>
        4 8 8 8 22</rect></_>
    <_>
      <rect>
        4 8 8 8 23</rect></_>
    <_>
      <rect>
        4 8 8 8 33</rect></_>
    <_>
      <rect>
        4 12 8 8 20</rect></_>
    <_>
      <rect>
        4 12 8 8 21</rect></_>
    <_>
      <rect>
        4 12 8 8 26</rect></_>
    <_>
      <rect>
        4 12 8 8 29</rect></_>
    <_>
      <rect>
        4 16 8 8 7</rect></_>
    <_>
      <rect>
        4 16 8 8 19</rect></_>
    <_>
      <rect>
        8 0 8 8 6</rect></_>
    <_>
      <rect>
        8 0 8 8 9</rect></_>
    <_>
      <rect>
        8 0 8 8 10</rect></_>
    <_>
      <rect>
        8 0 8 8 22</rect></_>
    <_>
      <rect>
        8 4 8 8 24</rect></_>
    <_>
      <rect>
        8 4 8 8 27</rect></_>
    <_>
      <rect>
        8 4 8 8 28</rect></_>
    <_>
      <rect>
        8 4 8 8 32</rect></_>
    <_>
      <rect>
        8 8 8 8 3</rect></_>
    <_>
      <rect>
        8 8 8 8 11</rect></_>
    <_>
      <rect>
        8 12 8 8 14</rect></_>
    <_>
      <rect>
        8 12 8 8 18</rect></_>
    <_>
      <rect>
        8 12 8 8 23</rect></_>
    <_>
      <rect>
        8 12 8 8 29</rect></_>
    <_>
      <rect>
        8 12 8 8 33</rect></_>
    <_>
      <rect>
        8 12 8 8 34</rect></_>
    <_>
      <rect>
        8 16 8 8 23</rect></_>
    <_>
      <rect>
        12 0 8 8 6</rect></_>
    <_>
      <rect>
        12 0 8 8 7</rect></_>
    <_>
      <rect>
        12 0 8 8 8</rect></_>
    <_>
      <rect>
        12 0 8 8 11</rect></_>
    <_>
      <rect>
        12 0 8 8 16</rect></_>
    <_>
      <rect>
        12 0 8 8 25</rect></_>
    <_>
      <rect>
        12 4 8 8 11</rect></_>
    <_>
      <rect>
        12 8 8 8 0</rect></_>
    <_>
      <rect>
        12 8 8 8 6</rect></_>
    <_>
      <rect>
        12 8 8 8 30</rect></_>
    <_>
      <rect>
        12 12 8 8 23</rect></_>
    <_>
      <rect>
        12 12 8 8 28</rect></_>
    <_>
      <rect>
        12 12 8 8 33</rect></_>
    <_>
      <rect>
        12 16 8 8 9</rect></_>
    <_>
      <rect>
        12 16 8 8 13</rect></_>
    <_>
      <rect>
        12 16 8 8 31</rect></_>
    <_>
      <rect>
        16 0 8 8 11</rect></_>
    <_>
      <rect>
        16 0 8 8 13</rect></_>
    <_>
      <rect>
        16 0 8 8 21</rect></_>
    <_>
      <rect>
        16 4 8 8 19</rect></_>
    <_>
      <rect>
        16 4 8 8 32</rect></_>
    <_>
      <rect>
        16 4 8 8 33</rect></_>
    <_>
      <rect>
        16 8 8 8 2</rect></_>
    <_>
      <rect>
        16 8 8 8 4</rect></_>
    <_>
      <rect>
        16 8 8 8 17</rect></_>
    <_>
      <rect>
        16 12 8 8 31</rect></_>
    <_>
      <rect>
        16 16 8 8 19</rect></_>
    <_>
      <rect>
        16 16 8 8 32</rect></_>
    <_>
      <rect>
        0 0 8 16 0</rect></_>
    <_>
      <rect>
        0 0 8 16 3</rect></_>
    <_>
      <rect>
        0 0 8 16 4</rect></_>
    <_>
      <rect>
        0 0 8 16 8</rect></_>
    <_>
      <rect>
        0 0 8 16 12</rect></_>
    <_>
      <rect>
        0 0 8 16 14</rect></_>
    <_>
      <rect>
        0 0 8 16 16</rect></_>
    <_>
      <rect>
        0 0 8 16 21</rect></_>
    <_>
      <rect>
        4 0 8 16 22</rect></_>
    <_>
      <rect>
        4 0 8 16 25</rect></_>
    <_>
      <rect>
        4 0 8 16 30</rect></_>
    <_>
      <rect>
        8 0 8 16 7</rect></_>
    <_>
      <rect>
        12 0 8 16 27</rect></_>
    <_>
      <rect>
        12 0 8 16 30</rect></_>
    <_>
      <rect>
        16 0 8 16 0</rect></_>
    <_>
      <rect>
        16 0 8 16 12</rect></_>
    <_>
      <rect>
        16 0 8 16 13</rect></_>
    <_>
      <rect>
        16 0 8 16 16</rect></_>
    <_>
      <rect>
        0 0 16 8 0</rect></_>
    <_>
      <rect>
        0 0 16 8 6</rect></_>
    <_>
      <rect>
        0 0 16 8 10</rect></_>
    <_>
      <rect>
        0 0 16 8 16</rect></_>
    <_>
      <rect>
        0 8 16 8 25</rect></_>
    <_>
      <rect>
        0 8 16 8 27</rect></_>
    <_>
      <rect>
        0 8 16 8 35</rect></_>
    <_>
      <rect>
        0 12 16 8 24</rect></_>
    <_>
      <rect>
        0 0 16 16 0</rect></_>
    <_>
      <rect>
        0 0 16 16 16</rect></_>
    <_>
      <rect>
        0 0 16 16 27</rect></_></features></cascade>
</opencv_storage>
