<?xml version="1.0"?>
<opencv_storage>
<!-- Created using Computer Vision Toolbox(tm) for MATLAB(R) -->
<!-- Version 24.1.0.2537033 (R2024a) -->
<!-- Compatible with OpenCV 4.7 -->
<cascade>
  <stageType>BOOST</stageType>
  <featureType>LBP</featureType>
  <height>32</height>
  <width>32</width>
  <stageParams>
    <boostType>GAB</boostType>
    <minHitRate>9.9500000476837158e-01</minHitRate>
    <maxFalseAlarm>2.0000000298023224e-01</maxFalseAlarm>
    <weightTrimRate>9.4999999999999996e-01</weightTrimRate>
    <maxDepth>1</maxDepth>
    <maxWeakCount>100</maxWeakCount></stageParams>
  <featureParams>
    <maxCatCount>256</maxCatCount>
    <featSize>1</featSize></featureParams>
  <stageNum>2</stageNum>
  <stages>
    <!-- stage 0 -->
    <_>
      <maxWeakCount>5</maxWeakCount>
      <stageThreshold>-1.5561213493347168e+00</stageThreshold>
      <weakClassifiers>
        <_>
          <internalNodes>
            0 -1 6 -16449 -20481 -21829 -21829 -65 -1 -67130709 -21845</internalNodes>
          <leafValues>
            -9.0672785043716431e-01 6.9974225759506226e-01</leafValues></_>
        <_>
          <internalNodes>
            0 -1 13 -721617202 -252313601 -1 -1 -1 -1 -1 -1</internalNodes>
          <leafValues>
            -8.1456434726715088e-01 5.4998135566711426e-01</leafValues></_>
        <_>
          <internalNodes>
            0 -1 0 -4097 -20481 -1342230737 -1343279313 -1 -1 -33009
            -268488881</internalNodes>
          <leafValues>
            -6.7402565479278564e-01 6.4524281024932861e-01</leafValues></_>
        <_>
          <internalNodes>
            0 -1 5 -3149874 -9502740 -306 -1376306 -536871986 -3211265
            -120 -68377716</internalNodes>
          <leafValues>
            -7.5036340951919556e-01 4.2590615153312683e-01</leafValues></_>
        <_>
          <internalNodes>
            0 -1 8 -16847308 -286326789 -421221888 -285299156 -268451987
            -1 -288375008 -285216853</internalNodes>
          <leafValues>
            -7.2813236713409424e-01 4.1329029202461243e-01</leafValues></_></weakClassifiers></_>
    <!-- stage 1 -->
    <_>
      <maxWeakCount>9</maxWeakCount>
      <stageThreshold>-1.1183418035507202e+00</stageThreshold>
      <weakClassifiers>
        <_>
          <internalNodes>
            0 -1 4 -17473 -14828673 -21829 -1140872533 -3031105
            -67241985 -21845 -1073763669</internalNodes>
          <leafValues>
            -6.9993972778320312e-01 7.0834654569625854e-01</leafValues></_>
        <_>
          <internalNodes>
            0 -1 3 -179964480 -65 -1574027 -43637 1901459441 -4117
            -67642369 -257</internalNodes>
          <leafValues>
            -6.5028387308120728e-01 5.7997959852218628e-01</leafValues></_>
        <_>
          <internalNodes>
            0 -1 12 -4305 -12583361 -4198417 -1 -142662878 641439271
            -1485885694 -268435521</internalNodes>
          <leafValues>
            -5.4867511987686157e-01 6.3434785604476929e-01</leafValues></_>
        <_>
          <internalNodes>
            0 -1 10 1139224575 -67637249 -1228801 -6963249 50136319
            2147483391 250547199 -32769</internalNodes>
          <leafValues>
            -5.8104342222213745e-01 5.3677159547805786e-01</leafValues></_>
        <_>
          <internalNodes>
            0 -1 9 -54727276 -298263585 -761753156 -1898645044
            -160483503 -74842724 -93234256 -1</internalNodes>
          <leafValues>
            -5.6337904930114746e-01 5.3824698925018311e-01</leafValues></_>
        <_>
          <internalNodes>
            0 -1 7 -136319057 -201471025 2071440808 -4232790 -50860105
            -66337 2063466536 -36196726</internalNodes>
          <leafValues>
            -6.1204397678375244e-01 4.6497926115989685e-01</leafValues></_>
        <_>
          <internalNodes>
            0 -1 2 -151000401 -25178385 -388070750 -492330290 -389201337
            2081899999 -151292861 -159385873</internalNodes>
          <leafValues>
            -5.7417368888854980e-01 4.6448189020156860e-01</leafValues></_>
        <_>
          <internalNodes>
            0 -1 1 -1427984386 -27855042 -350298229 -2167909 841430011
            2123123419 -1109135425 -268574209</internalNodes>
          <leafValues>
            -5.4176074266433716e-01 4.8342561721801758e-01</leafValues></_>
        <_>
          <internalNodes>
            0 -1 11 -1310793 -438315033 -1258113024 705133319
            -1145372677 -896533713 1924919808 261891</internalNodes>
          <leafValues>
            -7.1817088127136230e-01 3.6041837930679321e-01</leafValues></_></weakClassifiers></_></stages>
  <features>
    <_>
      <rect>
        3 6 7 4</rect></_>
    <_>
      <rect>
        4 0 5 4</rect></_>
    <_>
      <rect>
        5 19 3 2</rect></_>
    <_>
      <rect>
        8 9 2 5</rect></_>
    <_>
      <rect>
        9 7 4 3</rect></_>
    <_>
      <rect>
        10 6 4 2</rect></_>
    <_>
      <rect>
        10 7 4 3</rect></_>
    <_>
      <rect>
        12 8 3 2</rect></_>
    <_>
      <rect>
        13 8 2 5</rect></_>
    <_>
      <rect>
        13 19 2 4</rect></_>
    <_>
      <rect>
        14 10 3 2</rect></_>
    <_>
      <rect>
        15 16 4 3</rect></_>
    <_>
      <rect>
        18 2 4 6</rect></_>
    <_>
      <rect>
        18 10 2 4</rect></_></features></cascade>
</opencv_storage>
